<?xml version="1.0"?>
<opencv_storage>
<stage8>
  <maxWeakCount>10</maxWeakCount>
  <stageThreshold>-1.5364387035369873e+00</stageThreshold>
  <weakClassifiers>
    <_>
      <internalNodes>
        0 -1 112015 -6.8413764238357544e-02</internalNodes>
      <leafValues>
        -7.7162899076938629e-02 -6.7795777320861816e-01</leafValues></_>
    <_>
      <internalNodes>
        0 -1 13299 -2.9865955002605915e-04</internalNodes>
      <leafValues>
        -7.5037378072738647e-01 1.2318326532840729e-01</leafValues></_>
    <_>
      <internalNodes>
        0 -1 0 -2.5902659399434924e-04</internalNodes>
      <leafValues>
        -6.7899137735366821e-01 1.4582386612892151e-01</leafValues></_>
    <_>
      <internalNodes>
        0 -1 0 2.0251718524377793e-04</internalNodes>
      <leafValues>
        1.8229548633098602e-01 -6.6321188211441040e-01</leafValues></_>
    <_>
      <internalNodes>
        0 -1 13372 1.8024496966972947e-04</internalNodes>
      <leafValues>
        1.2885467708110809e-01 -7.5425231456756592e-01</leafValues></_>
    <_>
      <internalNodes>
        0 -1 13008 -3.6524323513731360e-04</internalNodes>
      <leafValues>
        -5.1852887868881226e-01 1.4468282461166382e-01</leafValues></_>
    <_>
      <internalNodes>
        0 -1 132862 -2.5585103780031204e-02</internalNodes>
      <leafValues>
        4.7715240716934204e-01 -1.7076005041599274e-01</leafValues></_>
    <_>
      <internalNodes>
        0 -1 10935 2.6404947042465210e-01</internalNodes>
      <leafValues>
        7.7343396842479706e-02 -8.4305143356323242e-01</leafValues></_>
    <_>
      <internalNodes>
        0 -1 4985 -3.1484133796766400e-04</internalNodes>
      <leafValues>
        -5.2228516340255737e-01 9.9812150001525879e-02</leafValues></_>
    <_>
      <internalNodes>
        0 -1 4985 1.1384478420950472e-04</internalNodes>
      <leafValues>
        1.3889779150485992e-01 -4.1534066200256348e-01</leafValues></_></weakClassifiers></stage8>
</opencv_storage>
